np.array([np.array([[-1.94478779e+00,  9.86823429e-01,  3.83532594e+00,  7.04119494e-02, -1.97922538e+00,  2.35310907e-01, -2.48959424e+00, -8.85257026e-01],
       [ 3.58054626e-01, -1.32596150e-02,  8.03495225e-01, -4.99826680e-01,  1.65124800e+00, -1.49640830e-01,  3.39223787e+00, -3.75938417e-01],
       [-1.75101159e+00,  1.86093651e-01,  1.96097999e+00,  3.63491659e-01,  3.47177638e-01,  3.92910745e-01, -5.48013733e+00, -3.72193937e-02],
       [ 5.31030488e-01, -7.00513988e+00, -7.28281368e+00,  2.01392677e+00, -2.09630669e+00, -7.72515771e+00,  6.79672661e-01, -3.84289163e+00],
       [ 3.72456561e+00,  2.94859637e+00,  2.21086645e+00,  1.35282382e+01,  3.06593811e+00, -1.59684953e+00,  2.33439305e-01, -1.40089352e+00],
       [ 1.91907842e+00,  9.47500594e-01,  5.92975000e-01, -1.56427972e+00, -2.07629941e+00, -9.29128616e-02, -6.31016704e+00, -2.63456474e+00],
       [-2.03925767e+00, -8.41200739e-01, -2.22792277e+00, -3.08978600e+00, -4.58766546e+00, -8.76128874e-01,  1.66050674e+00, -6.81747418e-01],
       [-2.06571736e-01,  1.86664039e-01,  9.61634851e-01,  2.20901908e-02,  5.50870454e+00,  1.95399394e-01, -3.53420416e+00,  9.33901266e-01],
       [-4.41758029e-01,  1.29971365e+00,  3.83372867e+00,  8.90247840e-01,  1.37532227e+00, -5.05278784e-01, -2.85151038e-01, -4.13488285e-03],
       [ 3.13325929e-02, -2.60460742e-01, -4.84074640e-01, -2.26296002e-01, -8.70221956e-01, -1.27054706e-01,  8.30559276e-01, -4.01507589e-02],
       [ 7.41542261e-02,  1.41766309e-01, -1.04306851e-01,  6.07719247e-02,  8.68826969e-01,  9.16016447e-02, -4.31812881e-01,  6.01848575e-01],
       [-3.82781270e+00, -1.96495600e+00, -3.07312291e+00, -3.30029209e+00,  1.52168608e+00, -4.48317263e-02, -2.66759765e+00,  1.36720381e-01],
       [ 8.07277809e-01, -1.00742441e-01, -1.23080771e+00,  3.62188670e-01,  4.60155479e-01, -9.62223643e-02,  1.91191476e+00,  5.78917407e-01],
       [-6.67223051e-01,  1.34070559e-01,  1.01870893e+00, -2.83915531e-02,  5.18591784e-01,  3.75911975e-03, -2.56684932e+00, -1.10675939e+00],
       [ 1.64271780e+00, -1.27863635e+00, -4.35938958e+00,  4.99667144e-01, -1.59020667e+00,  2.02627287e-01,  3.59841040e-01, -5.04632487e-01],
       [-6.67919180e-01,  5.61628229e-01,  8.82633355e-01, -1.65218577e-01, -6.10569748e-01,  5.26205246e-01, -6.37005900e-01,  4.13607088e-01],
       [ 4.80211165e-02, -2.15642883e-01, -1.52803479e-02,  2.40649777e-01, -3.44377090e-01, -1.37745411e-01, -2.22458199e+00, -9.38554451e-01],
       [-2.89223019e+00,  8.77911377e-02,  3.62854957e+00,  1.05723936e+00, -1.65652297e+00,  2.91731343e-01, -1.70851866e+00, -4.63461023e+00],
       [-3.83434321e-01,  7.03926793e-01,  2.08532771e+00,  1.21623169e+00, -1.85456724e-01,  6.01111907e-01,  1.80813576e+00, -2.73995693e-01],
       [ 1.42057063e+00, -1.06456706e+00, -4.53766092e+00, -1.94442334e-01, -7.69008409e+00, -4.82419725e-01, -2.36722813e+00, -1.14619299e+00]]), np.array([[-5.9119455 ,  0.82347924, -3.96876426,  3.81267697, -3.42067597,  4.31027202,  3.25969874, -2.79342707],
       [-0.23768458,  0.12784246,  1.8569414 ,  3.20162007, -0.21204486,  3.008651  , -5.62771003, -3.93499394],
       [-3.08291448, -0.68947202, -2.26044755,  0.25458601, -1.47783361,  3.03585444,  3.5878596 , -0.27082021],
       [ 2.06858587,  7.87864764,  1.48583827, -7.49389461,  3.15115963, -2.28178165,  1.68099262,  0.20004067],
       [ 4.45862604, -1.39112451,  2.3686645 ,  1.70461718, -1.33161408,  5.21074409, -2.56105835,  3.85043644],
       [-0.99658607, -0.95773726, -0.82270502, -0.80590345, -8.17291622,  1.25898216, -2.11274852,  4.31778886],
       [ 4.49567876,  4.54665952,  2.10898344, -2.36140586, -1.28448517, -1.65973152, -1.24162135,  0.52650187],
       [-3.46239724, -1.29892238,  0.16954254, -5.10643239, -1.1677138 , -2.4697117 ,  2.79496016, -8.1738175 ]]), np.array([[-1.65032922, -0.6105453 ,  2.09826024,  1.05933172,  4.06563958, -6.57643635,  0.15073873,  3.22261016],
       [-1.01932651, -0.67610003, -3.62200526, -0.19546152, -3.82136503, -3.23892093,  0.99891767,  0.58515108],
       [-1.43176146, -1.32528331, -4.57240897, -1.58173254,  2.14106912,  5.28718267, -1.62487565,  0.08633393],
       [ 1.37360355,  0.77828441, -6.73644551,  6.17899516,  1.42338988,  0.22667889, -1.00276819,  1.40379859],
       [ 0.63658007,  1.56829712, -5.86115737,  2.53562522,  0.30695742, -3.94915981, -0.37155103, -1.45494664],
       [-1.11325039, -1.57390365, -1.09916986,  0.62629399, -1.49169523, -2.80507842,  0.53513225, -2.44713991],
       [-0.12442525, -0.81377422,  2.60272444,  0.05554656,  2.60179462,  8.08108   , -0.06650055, -2.54052201],
       [-0.39206585, -1.32700503,  5.14095283, -1.80357586,  0.06222882,  5.88972019, -1.40999472, -1.82982118]]), np.array([[ -0.57027051,   1.99349001],
       [ -2.45299989,   1.60227945],
       [ -8.69245494,   5.53371084],
       [  2.11583212,   6.34998508],
       [  4.2689962 ,   1.11207751],
       [ -0.83198972, -11.10264507],
       [ -0.8222881 ,   0.80833697],
       [ -4.2948154 ,  -0.30035981]])])
